digraph Tree {
node [shape=box, style="rounded", color="black", fontname=helvetica] ;
edge [fontname=helvetica] ;
0 [label="O <= 2.5\nmse = 5.7\nsamples = 15\nvalue = 6.5"] ;
1 [label="E <= 2.8\nmse = 6.7\nsamples = 6\nvalue = 5.0"] ;
0 -> 1 [labeldistance=2.5, labelangle=45, headlabel="True"] ;
2 [label="O <= 1.2\nmse = 3.7\nsamples = 3\nvalue = 7.2"] ;
1 -> 2 ;
3 [label="E <= 2.2\nmse = 0.2\nsamples = 2\nvalue = 8.3"] ;
2 -> 3 ;
4 [label="mse = 0.0\nsamples = 1\nvalue = 8.0"] ;
3 -> 4 ;
5 [label="mse = 0.0\nsamples = 1\nvalue = 9.0"] ;
3 -> 5 ;
6 [label="mse = 0.0\nsamples = 1\nvalue = 4.0"] ;
2 -> 6 ;
7 [label="A <= 3.5\nmse = 3.9\nsamples = 3\nvalue = 3.7"] ;
1 -> 7 ;
8 [label="mse = 6.8\nsamples = 2\nvalue = 3.5"] ;
7 -> 8 ;
9 [label="mse = 0.0\nsamples = 1\nvalue = 4.0"] ;
7 -> 9 ;
10 [label="A <= 3.5\nmse = 1.2\nsamples = 9\nvalue = 7.8"] ;
0 -> 10 [labeldistance=2.5, labelangle=-45, headlabel="False"] ;
11 [label="O <= 3.5\nmse = 0.1\nsamples = 3\nvalue = 8.2"] ;
10 -> 11 ;
12 [label="mse = 0.0\nsamples = 1\nvalue = 8.0"] ;
11 -> 12 ;
13 [label="mse = 0.0\nsamples = 2\nvalue = 8.5"] ;
11 -> 13 ;
14 [label="N <= 4.5\nmse = 1.6\nsamples = 6\nvalue = 7.6"] ;
10 -> 14 ;
15 [label="E <= 1.5\nmse = 1.9\nsamples = 5\nvalue = 7.8"] ;
14 -> 15 ;
16 [label="O <= 4.5\nmse = 2.0\nsamples = 4\nvalue = 7.4"] ;
15 -> 16 ;
17 [label="N <= 3.5\nmse = 2.2\nsamples = 3\nvalue = 7.1"] ;
16 -> 17 ;
18 [label="mse = 0.0\nsamples = 1\nvalue = 6.5"] ;
17 -> 18 ;
19 [label="mse = 2.7\nsamples = 2\nvalue = 7.3"] ;
17 -> 19 ;
20 [label="mse = -0.0\nsamples = 1\nvalue = 8.3"] ;
16 -> 20 ;
21 [label="mse = 0.0\nsamples = 1\nvalue = 9.0"] ;
15 -> 21 ;
22 [label="mse = 0.0\nsamples = 1\nvalue = 7.0"] ;
14 -> 22 ;
}