digraph Tree {
node [shape=box, style="rounded", color="black", fontname=helvetica] ;
edge [fontname=helvetica] ;
0 [label="Culture <= 2.5\nmse = 0.0\nsamples = 2\nvalue = 0.1"] ;
1 [label="mse = 0.0\nsamples = 1\nvalue = 0.3"] ;
0 -> 1 [labeldistance=2.5, labelangle=45, headlabel="True"] ;
2 [label="mse = -0.0\nsamples = 1\nvalue = 0.0"] ;
0 -> 2 [labeldistance=2.5, labelangle=-45, headlabel="False"] ;
}